<?xml version="1.0"?>
<opencv_storage>
<opencv_ml_svm>
  <format>3</format>
  <svmType>C_SVC</svmType>
  <kernel>
    <type>LINEAR</type></kernel>
  <C>1.</C>
  <term_criteria><iterations>1000</iterations></term_criteria>
  <var_count>42</var_count>
  <class_count>3</class_count>
  <class_labels type_id="opencv-matrix">
    <rows>3</rows>
    <cols>1</cols>
    <dt>i</dt>
    <data>
      0 1 2</data></class_labels>
  <sv_total>3</sv_total>
  <support_vectors>
    <_>
      -1.33520293 -1.02976632 -1.0540489 -0.968947351 -0.579216123
      -0.354329228 0.324146777 0.508226991 0.316483587 0.688258886
      -0.390441984 0.412183762 0.258729905 0.759346724 0.222825482
      -0.0186878946 0.297978103 -0.384602517 -0.520635962 0.698492706
      0.337844431 0.720939219 -0.393230855 -0.420006722 0.159857541
      -0.497395158 -0.577855647 0.797752857 -0.207338423 0.278491706
      -0.223828033 -0.336964339 -0.256141543 -0.690930367 -0.569068372
      0.265455604 -0.227740571 0.29491812 -0.406343102 -0.299911141
      -0.164921328 -0.296474338</_>
    <_>
      0.349854648 0.480868399 0.676065207 0.762070894 0.533205152
      0.926295519 0.595161974 0.698941469 0.119231977 0.570492864
      0.0272474792 0.394370466 -0.186130732 0.32970497 -0.0714134723
      0.290241957 -0.485826164 0.170381412 -0.00765942503 0.316230625
      -0.269490957 0.0972916484 0.164074451 -0.222890899 0.360353351
      -0.719146311 -0.0610116869 0.273902833 -0.126006231 -0.0567170456
      0.0294138957 -0.27891472 0.0766453519 -0.728937805 -0.103800878
      0.0700214729 -0.2745305 0.15946193 0.0608427823 0.0667027906
      0.150955305 -0.158615768</_>
    <_>
      0.836969674 0.59949857 0.870376945 0.836537182 0.651599944
      0.575606108 0.342414409 0.0109329214 -0.126096874 0.154093921
      0.220259696 -0.185130939 -0.328365296 -0.247512087 -0.431917787
      0.716983616 -0.517466366 1.0136193 0.0978754163 -0.241161987
      -0.197777256 -0.318888783 0.0863054097 -0.0582076497 0.277294815
      -0.302077204 0.0966991857 -0.166328952 -0.396175355 -0.63000828
      0.296610326 -0.0554429553 0.336933225 -0.486386061 -0.0315610804
      -0.315323144 -0.0690918416 -0.420742124 0.0426158048 -0.0895929784
      0.274269104 -0.175801635</_></support_vectors>
  <uncompressed_sv_total>54</uncompressed_sv_total>
  <uncompressed_support_vectors>
    <_>
      0. 0. -0.130190462 -0.0417866968 -0.237235427 -0.168954775
      -0.304316461 -0.316522926 -0.356922746 -0.419846177 -0.152265877
      -0.485847831 -0.178199753 -0.673495591 -0.186848953 -0.787221253
      -0.190670133 -0.89100641 -0.0763200447 -0.530487895 -0.0850162879
      -0.753010809 -0.0884380713 -0.883423328 -0.092453599 -0.995716989
      -0.00705066044 -0.52622807 -0.0114320656 -0.737929702
      -0.0180482361 -0.863408446 -0.0282383636 -0.978314042 0.0623364337
      -0.483427852 0.0772311985 -0.640503883 0.0847690627 -0.744916499
      0.0871386975 -0.848214865</_>
    <_>
      -0.0835347027 0.214514911 -0.118759841 0.0309820715 0.0633776858
      0.04137991 -0.0185287651 -0.0129820695 0.00438114721 -0.0147002004
      0.0963879153 0.221052304 -0.0557491779 -0.136980295 -0.00882820506
      0.257970929 -0.0803674534 0.163911685 0.167770088 -0.0553588234
      0.0568983071 0.162839666 -0.0379127748 -0.0203580353 -0.0581680909
      -0.101475671 -0.0649277568 -0.122394025 0.00340834679
      -0.0769973248 0.023378592 -0.155589566 0.0330880247 0.0833528936
      -0.199373558 0.0374056585 0.122766897 -0.120964102 0.167257234
      0.0419019014 -0.070501186 -0.00557690766</_>
    <_>
      0. 0. 0.0560541227 -0.198934674 0.133123398 -0.398231924
      0.176082075 -0.544088006 0.17733562 -0.673747599 0.219962746
      -0.570268512 0.356383502 -0.709866941 0.436797768 -0.799484193
      0.49955985 -0.866279364 0.224775046 -0.53488791 0.405409366
      -0.337201595 0.371162683 -0.21704711 0.32478568 -0.213417202
      0.234308705 -0.43083027 0.39147532 -0.216732174 0.343765914
      -0.139791429 0.299559891 -0.168921933 0.242339998 -0.299205869
      0.360279024 -0.127662778 0.311038047 -0.0651345849 0.262492388
      -0.0926345438</_>
    <_>
      0. 0. -0.123560071 -0.0223031864 -0.237064019 -0.118919998
      -0.30791682 -0.232818067 -0.36701563 -0.295782417 -0.168515593
      -0.486637443 -0.195562392 -0.676168263 -0.20421423 -0.788400054
      -0.208359197 -0.886668622 -0.0917554349 -0.539988756 -0.0955521315
      -0.758885264 -0.0954643786 -0.885270119 -0.0937995389 -0.995591104
      -0.0210819989 -0.531280756 -0.0227901433 -0.736190319
      -0.0229689758 -0.853504479 -0.0237683188 -0.958908796 0.0503768623
      -0.478909969 0.0726080835 -0.627630532 0.0862256736 -0.721318185
      0.096392706 -0.813524485</_>
    <_>
      -0.482478857 -0.2014741 -0.463251829 -0.531352997 -0.407819837
      -0.451731205 -0.457990557 -0.439314932 -0.294345647 -0.613088846
      -0.452636778 -0.592638135 -0.444448739 -0.591868639 -0.541736662
      -0.529509008 -0.402418315 -0.408154547 -0.624571741 -0.494506598
      -0.570957959 -0.625850499 -0.521701694 -0.530848265 -0.257328361
      -0.456704021 -0.637761772 -0.556477427 -0.39786166 -0.291155726
      -0.658598304 -0.687992454 -0.312903494 -0.461038589 -0.586829245
      -0.446537077 -0.763574779 -0.499662459 -0.467217892 -0.407572985
      -0.601389587 -0.491431296</_>
    <_>
      0. 0. -0.243863702 0.0217082649 -0.473745465 -0.123826765
      -0.580910087 -0.399296552 -0.564229012 -0.688130617 -0.419264346
      -0.751556337 -0.5688743 -0.785733998 -0.482156247 -0.486731648
      -0.414479256 -0.498767883 -0.311428994 -0.845071077 -0.473976463
      -0.874852598 -0.378765434 -0.510599136 -0.301579595 -0.556695879
      -0.197177887 -0.912697971 -0.355653524 -0.934617877 -0.278643876
      -0.570947289 -0.206146315 -0.61368835 -0.0627353042 -0.950402021
      -0.214151591 -0.936961889 -0.183631018 -0.680471122 -0.122801013
      -0.695333838</_>
    <_>
      0.554628432 0.50064224 0.456361413 0.489039034 0.491163701
      0.462998897 0.474120408 0.659864724 0.556091964 0.470451981
      0.569695413 0.466618061 0.617312491 0.536964238 0.489269793
      0.544771671 0.342912376 0.38732326 0.380607486 0.514294326
      0.67325151 0.723129988 0.563805103 0.550084472 0.319894224
      0.445732623 0.421221614 0.437915236 0.483185619 0.452790946
      0.302070022 0.574791014 0.392725706 0.523924708 0.707408249
      0.408061534 0.24697125 0.471399575 0.610095978 0.695834756
      0.377045035 0.549669921</_>
    <_>
      0.104955271 -0.0535235219 0.131739408 0.0197599605 0.207526088
      -0.0689187795 0.173596382 0.0197910778 -0.0651417971 -0.0483885817
      -0.0320347324 0.0424165949 0.0522835478 -0.0573699996
      -0.00243545929 0.214227036 0.172754318 0.0436323658 0.00380034791
      0.0120031331 0.0613517985 -0.102279253 -0.0257376544 -0.166858405
      0.0399223119 0.064719595 -0.0483186468 0.157398671 -0.122576565
      -0.146437481 0.0224451814 0.104709834 0.168392763 -0.0458884276
      0.107868083 -0.00385084702 -0.0172627307 0.0883659944 0.0652322844
      -0.15763922 0.147654042 0.138009131</_>
    <_>
      0. 0. 0.0722203106 -0.211217806 0.112861544 -0.40074262
      0.133773938 -0.540731668 0.16139023 -0.648527801 -0.0186031088
      -0.56208241 -0.0369815826 -0.731350064 -0.046857167 -0.843147457
      -0.0563609488 -0.948122323 -0.0851864219 -0.540074944 -0.138986707
      -0.727271378 -0.170600235 -0.858311176 -0.1966784 -0.980468035
      -0.137685955 -0.472287267 -0.203863204 -0.639620066 -0.244999722
      -0.760146737 -0.27775982 -0.875792742 -0.175753355 -0.362333208
      -0.255438387 -0.467480212 -0.305827081 -0.542214334 -0.347764224
      -0.623361528</_>
    <_>
      0.48250401 0.424425483 0.553650975 0.41015321 0.502818108
      0.499088109 0.60858953 0.547469795 0.49749729 0.581776619
      0.639020741 0.555781007 0.501035273 0.368816376 0.393488646
      0.469477534 0.439048767 0.481302857 0.505665004 0.552969277
      0.492950112 0.548650146 0.506447434 0.302453339 0.406066447
      0.485591233 0.379030526 0.55999285 0.653075099 0.62187618
      0.478655726 0.649072587 0.514866769 0.466291398 0.438659728
      0.469753027 0.461182326 0.517041624 0.516057372 0.50030458
      0.543693841 0.619064629</_>
    <_>
      -0.0650642589 -0.0487125367 -0.0592393912 -0.0863990784
      0.00485216267 -0.0830950141 0.0270456821 -0.00502381101
      -0.0238948055 -0.0907563642 -0.0576771349 0.0755391195
      0.0500917174 -0.0977555215 0.00993323047 0.0751387104 -0.166940525
      0.0543360189 -0.0662623793 0.0570598654 -0.0763259158 -0.180488214
      -0.162754238 0.00480849482 0.0259722508 -0.0904316604 0.0638592467
      -0.166152 -0.00660798 -0.121101618 -0.0651836097 0.00473986706
      -0.0860413387 -0.0384555534 0.100629278 -0.0576891862 0.0835692137
      -0.112970687 0.0529804192 0.144156858 -0.247164443 -0.0796895251</_>
    <_>
      0.475393742 0.415675342 0.717094243 0.482411414 0.512320459
      0.555148542 0.504360259 0.669505119 0.437735051 0.519460738
      0.425752938 0.367997736 0.438823104 0.496296316 0.457069784
      0.43075791 0.359368265 0.491689444 0.349527955 0.576005578
      0.508243978 0.354244858 0.469079107 0.424784362 0.531917453
      0.634045064 0.312482744 0.511502624 0.483986735 0.567134023
      0.521319687 0.424803078 0.468094617 0.420397401 0.607600689
      0.502131164 0.690119088 0.493933916 0.429159313 0.348628551
      0.319686025 0.341586411</_>
    <_>
      0. 0. 0.133382589 0.0336866751 0.270512044 -0.0234933738
      0.379984975 -0.0822098479 0.468096912 -0.0700865611 0.285993606
      -0.430884749 0.369551212 -0.571577013 0.414316773 -0.656365395
      0.44966656 -0.729212224 0.215136141 -0.534458518 0.280943483
      -0.741219759 0.314199299 -0.853302836 0.340490937 -0.940247774
      0.136747018 -0.5802719 0.189839303 -0.776724875 0.221493259
      -0.87978977 0.24737975 -0.956561089 0.0456796773 -0.587269366
      0.0657476187 -0.757090569 0.082008414 -0.842275918 0.0994547084
      -0.909971833</_>
    <_>
      0. 0. -0.247718349 -0.121679373 -0.39022392 -0.329090536
      -0.450856686 -0.565635443 -0.442629158 -0.837267697 -0.232415244
      -0.791150093 -0.44958064 -0.840122879 -0.426969081 -0.587145448
      -0.352329522 -0.498334438 -0.147671446 -0.878594935 -0.385442495
      -0.898851335 -0.326676816 -0.574208856 -0.221301571 -0.573062956
      -0.0674699768 -0.94403708 -0.319398731 -0.947620392 -0.260949999
      -0.613029063 -0.149244443 -0.601473093 0.00290809502 -0.966281772
      -0.221729413 -0.922877014 -0.194743052 -0.695336699 -0.0976780057
      -0.680023968</_>
    <_>
      0. 0. -0.120597534 -0.160669267 -0.176167428 -0.384040385
      -0.172336563 -0.583410501 -0.160616606 -0.75964731 -0.107678764
      -0.562697589 -0.119151272 -0.751041412 -0.129795521 -0.874912083
      -0.129147589 -0.991625369 -0.0351581089 -0.56501013 -0.0479185544
      -0.806981504 -0.0901068375 -0.666811049 -0.108889028 -0.513231456
      0.0365080312 -0.534952164 0.0108439578 -0.724423528 -0.0421321057
      -0.545958817 -0.0596390404 -0.384527713 0.113595538 -0.481485784
      0.0889245793 -0.65869838 0.0339636914 -0.591431677 -0.00041862647
      -0.488869429</_>
    <_>
      0. 0. -0.124018699 -0.0388165675 -0.239836589 -0.138550311
      -0.323264807 -0.252219975 -0.392551839 -0.320593089 -0.173571244
      -0.492040813 -0.215366557 -0.675929964 -0.229646087 -0.78465724
      -0.236971945 -0.886526406 -0.100852154 -0.542967498 -0.123036161
      -0.759664953 -0.129568011 -0.884098351 -0.134016201 -0.990979135
      -0.0305196568 -0.541063845 -0.0456821695 -0.743813455
      -0.0543533005 -0.861000955 -0.0637840703 -0.963476956 0.0408083983
      -0.501431406 0.0467326418 -0.651458025 0.0518812835 -0.742377579
      0.0562742539 -0.830448329</_>
    <_>
      0. 0. 0.102408737 -0.112558722 0.161915988 -0.295775384
      0.192556337 -0.444718719 0.233609691 -0.540972054 0.0216834452
      -0.540848613 0.0183846988 -0.735451639 0.00983757619 -0.86079967
      -0.00313018495 -0.970151603 -0.0589257553 -0.52629149 -0.104772128
      -0.741522193 -0.133959919 -0.873337507 -0.162970543 -0.986630917
      -0.120620258 -0.459679782 -0.178770885 -0.642180443 -0.211994335
      -0.763704479 -0.241866365 -0.876167834 -0.166557178 -0.350813448
      -0.242083818 -0.452461332 -0.290173918 -0.52356708 -0.331522793
      -0.604057729</_>
    <_>
      0.0727629513 0.00519458856 0.0732640103 -0.0080716582
      0.00786351878 -0.199820071 0.0916327685 0.0346488468 0.0998010114
      -0.289625525 0.208837464 -0.0139589626 0.110818282 -0.103990592
      0.0612773895 -0.105341554 -0.0623768978 0.191403136 -0.0190682393
      0.0217432864 0.0870067701 0.0495681874 0.0150418906 0.0364960991
      0.240341559 -0.0057618795 0.0201099049 0.105065443 0.110552594
      0.11870303 0.0638730228 -0.114300489 0.163343146 -0.114634536
      0.0302635469 -0.0754275844 -0.00641383464 0.032876242 0.0321357213
      0.0421920754 0.161371127 0.0453534313</_>
    <_>
      0. 0. 0.140045822 -0.219818622 0.20600073 -0.533636808 0.100085974
      -0.791205883 -0.00808951724 -0.950051486 0.0693144873 -0.799759865
      0.0424558185 -0.999098361 0.0798852518 -0.761407018 0.0938966423
      -0.700903714 -0.0496927463 -0.759264529 -0.0856929272 -0.982080638
      -0.0250385944 -0.680403769 -0.0131622758 -0.635345221 -0.156280786
      -0.681686699 -0.190679908 -0.855198622 -0.116633914 -0.579108834
      -0.104606472 -0.533380866 -0.261839032 -0.566167891 -0.285988927
      -0.725875795 -0.221177325 -0.5440467 -0.202961817 -0.482254446</_>
    <_>
      0. 0. -0.191646114 -0.103771083 -0.31748876 -0.450612515
      -0.260328114 -0.806216419 -0.13465485 -0.972145379 -0.198193908
      -0.748694718 -0.23994498 -0.970786512 -0.244899869 -0.718489408
      -0.205637395 -0.622655094 -0.0650378242 -0.756652355 -0.115220189
      -0.99265182 -0.131454006 -0.641212344 -0.0892076269 -0.550658166
      0.0518107824 -0.718103051 0.0142792733 -0.987941682 -0.0354511328
      -0.647334158 -0.000557523861 -0.514826715 0.193177402 -0.660654724
      0.128000885 -0.848571539 0.0659720525 -0.627752185 0.0784099698
      -0.518850386</_>
    <_>
      0. 0. -0.00453565363 -0.287082791 0.0456700884 -0.486828655
      0.163153842 -0.539673746 0.278880596 -0.501820505 0.300611287
      -0.586438179 0.498446763 -0.667373955 0.629928052 -0.670741916
      0.739819229 -0.672805667 0.329966038 -0.402805448 0.439310551
      -0.432891607 0.315107256 -0.381843269 0.21528253 -0.381084502
      0.3403126 -0.225329772 0.435863853 -0.248921886 0.299132437
      -0.238985702 0.192283377 -0.251556188 0.331673801 -0.0357327722
      0.40864259 -0.0647155419 0.301604599 -0.0921504498 0.210783705
      -0.12424688</_>
    <_>
      -0.376912534 -0.331498563 -0.443711907 -0.587981462 -0.30129388
      -0.553097069 -0.533513784 -0.465766221 -0.344583958 -0.414602399
      -0.458513439 -0.453671157 -0.495648533 -0.444186062 -0.752956033
      -0.529660761 -0.475867808 -0.615101397 -0.461367667 -0.520447135
      -0.32445243 -0.342698038 -0.546580553 -0.51508379 -0.507394731
      -0.545165956 -0.480497509 -0.575828195 -0.613061547 -0.437728882
      -0.437047035 -0.580431581 -0.410464466 -0.563157797 -0.474683464
      -0.417965591 -0.503361285 -0.454525918 -0.551642954 -0.519646645
      -0.520585954 -0.574657857</_>
    <_>
      0.428317755 0.313346326 0.491731942 0.487825245 0.651344955
      0.563081145 0.397581309 0.685409248 0.622103393 0.558209777
      0.477351576 0.404056072 0.462779313 0.608874857 0.688458622
      0.654324353 0.451115072 0.388038248 0.514088631 0.323156059
      0.532316744 0.485239744 0.45339635 0.34052968 0.551360011
      0.446729928 0.383008331 0.212773785 0.497248501 0.677225173
      0.666125894 0.45429036 0.439778805 0.546877444 0.400161445
      0.530179203 0.576608002 0.6226933 0.489984602 0.479632616
      0.412201732 0.417311966</_>
    <_>
      0.11950466 -0.152318686 -0.0558921844 0.0377211869 0.156552404
      -0.00657502608 -0.0555199534 0.188115701 -0.144801393 -0.219880596
      0.0440014452 -0.0502054207 -0.102123283 0.0708356425 0.0243800711
      -0.0564078614 -0.128030434 0.0872457325 0.0650201142
      -0.00991758611 0.184663698 -0.10700848 -0.152552515 -0.0691908076
      -0.00455860142 0.0243339445 -0.0241236053 0.0352055393
      -0.125153944 0.144376457 -0.0082151182 0.111729585 0.0342725329
      0.0456753224 0.0569767281 0.0447708555 0.0642722771 0.132915258
      0.019652117 0.0709003732 -0.00897356961 0.144011721</_>
    <_>
      -0.316744298 -0.418584824 -0.451793313 -0.463126689 -0.460620284
      -0.692767262 -0.527888358 -0.41548419 -0.504889727 -0.640518963
      -0.50524044 -0.329589456 -0.375310838 -0.506200373 -0.404855072
      -0.536650717 -0.670387149 -0.592446625 -0.343711138 -0.527399302
      -0.524338424 -0.529983819 -0.309586346 -0.337404102 -0.278121978
      -0.515904546 -0.470437557 -0.651664257 -0.352306545 -0.616777956
      -0.478322446 -0.609730244 -0.558886707 -0.583726227 -0.560787499
      -0.553912282 -0.554826856 -0.416666597 -0.610486269 -0.477945864
      -0.378204077 -0.551319659</_>
    <_>
      0. 0. -0.158388749 -0.179135591 -0.216590956 -0.520096481
      -0.160612971 -0.806560993 -0.0739315227 -0.997263312
      -0.00830109604 -0.778507173 -0.0155710708 -0.956584036
      -0.0730625689 -0.722827673 -0.0511480235 -0.63387835 0.101114899
      -0.704929531 0.0796646252 -0.899601996 -0.0080909105 -0.617676914
      0.031816788 -0.559279978 0.195908546 -0.58996284 0.185269639
      -0.792023659 0.0824895129 -0.537714899 0.111669928 -0.477533191
      0.296160281 -0.442643762 0.2576994 -0.611180842 0.167181581
      -0.456271052 0.174886301 -0.392364711</_>
    <_>
      0. 0. 0.167534187 -0.0451201834 0.293416589 -0.230985656
      0.140353411 -0.328190506 -0.0486305095 -0.314848334 0.225922525
      -0.944523215 0.150984973 -0.692313731 0.167290211 -0.468072414
      0.197568595 -0.509935737 0.0491877533 -0.998789549 -0.0163764898
      -0.68193239 0.0336237289 -0.431312025 0.0752966106 -0.498370767
      -0.105359592 -0.944999337 -0.167215139 -0.618922949 -0.0936307535
      -0.358504832 -0.0356964543 -0.402207255 -0.238576785 -0.85044229
      -0.268810868 -0.589940786 -0.209155038 -0.394417822 -0.160160229
      -0.426380068</_>
    <_>
      0.594955385 0.351510197 0.244607881 0.593432009 0.363312125
      0.477523446 0.382988691 0.319801956 0.55414629 0.575915515
      0.442348957 0.240895778 0.445375562 0.539180398 0.352108836
      0.518335998 0.498469025 0.557929158 0.511958063 0.402693093
      0.619657159 0.484147042 0.497269541 0.406673193 0.455671787
      0.411519736 0.482705384 0.671170831 0.362809896 0.338643849
      0.647117019 0.479067624 0.433092713 0.603990495 0.439438432
      0.682600975 0.567792594 0.45120886 0.715730846 0.439428508
      0.574209511 0.52992928</_>
    <_>
      0.206074789 0.175534084 -0.024896415 0.0971570984 0.0645375922
      0.136863157 -0.0964923427 0.0686051473 0.105842449 -0.17587395
      -0.118325852 -0.203923211 -0.0269406829 0.0717542246 0.150235713
      0.00740947807 0.162861556 -0.138010144 -0.170338243 -0.00555477012
      0.0384065434 -0.00326947472 -0.206744209 -0.0089120036
      -0.130446956 0.0669672564 0.0366598256 -0.093987979 -0.0513866916
      -0.10592135 -0.00626790989 0.0955142304 -0.0985726044 0.050404653
      -0.0530257635 -0.0792872831 -0.0107030356 -0.10352423
      -0.0553649291 -0.11978779 0.196472511 0.00352635514</_>
    <_>
      0.0496714152 -0.0138264298 0.0647688508 0.15230298 -0.0234153382
      -0.0234136954 0.157921284 0.0767434761 -0.0469474383 0.0542560034
      -0.0463417694 -0.0465729758 0.024196228 -0.191328019 -0.172491789
      -0.0562287532 -0.101283111 0.0314247347 -0.0908024088 -0.141230375
      0.146564871 -0.0225776304 0.00675282069 -0.142474815 -0.0544382706
      0.0110922586 -0.115099356 0.0375698023 -0.0600638688 -0.0291693751
      -0.0601706617 0.185227811 -0.0013497225 -0.105771095 0.0822544917
      -0.122084364 0.0208863597 -0.195967019 -0.132818609 0.0196861234
      0.0738466606 0.017136829</_>
    <_>
      0.596945703 0.542719424 0.43537727 0.677531064 0.380636305
      0.591915429 0.600058258 0.43293798 0.639246523 0.474995345
      0.52886939 0.526032209 0.486569136 0.581080854 0.579348862
      0.325146794 0.630434036 0.333750814 0.603254616 0.612670541
      0.390903354 0.458918571 0.389429539 0.478507906 0.469196558
      0.577966034 0.631030858 0.639568388 0.443783194 0.479077816
      0.331656188 0.419413 0.596485138 0.66155827 0.376565099
      0.440753579 0.497359425 0.52801609 0.419039637 0.542406082
      0.452616066 0.498554766</_>
    <_>
      -0.169295684 -0.00983396266 -0.098859109 -0.110358931 0.0179894157
      0.139200225 0.0918316618 -0.157050058 -0.0989628136 0.0940771177
      -0.0982487425 -0.0224633142 0.0550052114 -0.0968344435
      0.0105375508 -0.133402556 -0.0601367652 0.0319781937 -0.159299374
      0.0440474749 -0.0019637798 0.0552489944 0.0223914143 0.136414036
      0.0125224506 -0.0429405533 0.0122297499 0.0543298014 0.00488600694
      0.00405916898 -0.0701991692 -0.0662900954 -0.140260532 0.174957678
      -0.124386325 -0.0692905188 -0.0718407258 0.0894924402
      -0.0294949673 0.12477421 -0.0673490614 0.0278994162</_>
    <_>
      0. 0. -0.135845259 -0.0376771241 -0.256551355 -0.139467567
      -0.330925405 -0.261692911 -0.392698199 -0.362713426 -0.20922029
      -0.505153716 -0.246460482 -0.675964117 -0.262055635 -0.77623409
      -0.275367975 -0.872733653 -0.13787578 -0.562455416 -0.15744473
      -0.771894038 -0.167453006 -0.886971772 -0.177524686 -0.984116375
      -0.0684939399 -0.564931571 -0.0851961374 -0.761771917 -0.09638156
      -0.876206934 -0.110894524 -0.982443213 0.00621035416 -0.528638303
      0.0115505531 -0.676691473 0.0130509976 -0.767995775 0.0105909742
      -0.858468175</_>
    <_>
      -0.0625562668 0.0395803526 0.0494030192 0.0260673761 -0.0550305136
      -0.0671623349 -0.00255540712 0.117272899 0.0543600172
      -0.0370614342 0.0771698728 -0.284854263 0.114876568 -0.173971385
      -0.0362440944 -0.11196699 -0.129468143 0.116082676 -0.0467701219
      0.0346503891 -0.00469205808 0.047704082 0.00768218888 -0.128299221
      0.0996266827 -0.049375657 -0.155658185 -0.0428115167 0.150075972
      0.0850221738 -0.0348652117 -0.03492577 -0.0321635045 0.207674801
      0.0381935462 0.0430041663 0.103028342 0.0238789152 -0.025904214
      -0.0196349844 -0.00716012577 -0.00372222369</_>
    <_>
      -0.0676392317 0.180094048 -0.00401579496 -0.143077508 0.0128104417
      -0.0681051686 0.084064357 -0.0652623996 -0.0446183421 -0.18895407
      -0.0452306308 -0.242387936 -0.158390284 0.0760414675 0.0785800144
      0.0425457545 -0.0966976136 -0.00477113575 -0.000360253907
      -0.115836471 0.150339827 0.0877362266 -0.0220964178 0.00268858392
      0.0208382811 -0.20417349 -0.0247177389 -0.0681984276 -0.100161999
      -0.0281100292 0.179768652 0.064084284 -0.057117898 0.0572582781
      0.139935538 0.0924633667 0.00596303679 -0.0646936744 0.0698223338
      0.039348539 0.0895193219 0.0635171831</_>
    <_>
      0. 0. 0.125843704 0.148692161 0.278234541 0.233827457 0.400142103
      0.315258443 0.480091214 0.442784637 0.396536797 -0.233712807
      0.555927873 -0.301456839 0.647030354 -0.347652018 0.724915206
      -0.391839921 0.35657382 -0.402106673 0.510943413 -0.567964733
      0.600415826 -0.66740942 0.668829441 -0.743415892 0.287688673
      -0.514069259 0.406577915 -0.683352411 0.476248384 -0.766422391
      0.532323778 -0.828932881 0.193710163 -0.586015403 0.273235321
      -0.730033994 0.314769328 -0.795376837 0.351056069 -0.844108522</_>
    <_>
      0.498129129 0.461148143 0.612411261 0.594752669 0.422712237
      0.540705204 0.402834326 0.362038195 0.437328279 0.586239338
      0.595312476 0.551308513 0.572509587 0.551617801 0.435851842
      0.543192267 0.580040932 0.575429142 0.618891358 0.570830405
      0.535144806 0.607015014 0.497347862 0.411812544 0.483693302
      0.425509721 0.432482183 0.485548139 0.420758009 0.46920386
      0.310638547 0.521329343 0.500120521 0.418291152 0.565924585
      0.593757033 0.339244008 0.423727512 0.423085779 0.406009704
      0.582947493 0.480617374</_>
    <_>
      -0.3245067 -0.498159826 -0.477473587 -0.43072772 -0.626933038
      -0.329748541 -0.479767114 -0.336814314 -0.573303282 -0.318193793
      -0.422484457 -0.444695979 -0.476597548 -0.524852872 -0.379946828
      -0.485964 -0.696706951 -0.611718655 -0.518584549 -0.469000101
      -0.505658865 -0.378102928 -0.695110202 -0.485641211 -0.681797922
      -0.424028784 -0.509445846 -0.458039016 -0.58638829 -0.372053504
      -0.395827532 -0.441645563 -0.512951732 -0.442014277 -0.570689261
      -0.414444447 -0.335051924 -0.392938942 -0.572960258 -0.463858277
      -0.629314125 -0.442760974</_>
    <_>
      0. 0. -0.00592407957 -0.333996087 0.121133856 -0.622978032
      0.269527584 -0.76305747 0.404815197 -0.859649479 0.393408597
      -0.503433406 0.6124506 -0.524601877 0.744687617 -0.529508471
      0.860661507 -0.509177566 0.421316236 -0.339293897 0.584961474
      -0.539469361 0.454439402 -0.596842647 0.336134732 -0.568020225
      0.431830019 -0.163078249 0.573302627 -0.342286319 0.400727183
      -0.385236442 0.270812064 -0.351054996 0.437223971 0.0557095744
      0.552996635 -0.103759959 0.451099873 -0.196376607 0.34258762
      -0.219458595</_>
    <_>
      0. 0. -0.0942458361 -0.170006171 -0.133217514 -0.373013973
      -0.14102447 -0.550507963 -0.160499945 -0.703421533 0.052742824
      -0.58468622 0.0980262831 -0.769642532 0.130713254 -0.885858953
      0.163809404 -0.986491978 0.134931982 -0.538631558 0.211893097
      -0.730953872 0.261513054 -0.84764421 0.303431213 -0.943185151
      0.192092225 -0.453847736 0.271609753 -0.624397695 0.317353785
      -0.73069042 0.355669588 -0.828131616 0.230133921 -0.334748954
      0.313565373 -0.422842205 0.369535476 -0.481172651 0.416816831
      -0.542364895</_>
    <_>
      0. 0. 0.21345669 -0.175343379 0.354058087 -0.347615421 0.424373329
      -0.479166329 0.371506393 -0.492513895 0.141619876 -0.989921093
      0.341078311 -0.843513429 0.332975298 -0.581297576 0.275201619
      -0.530622005 0.0201727133 -0.952140749 0.262627363 -0.724862039
      0.249987841 -0.441226274 0.186414018 -0.430653274 -0.0772680491
      -0.814182639 0.151913047 -0.566319168 0.152056471 -0.33278951
      0.0932408795 -0.349449664 -0.15005365 -0.622883081 0.0338600241
      -0.436242521 0.0567024313 -0.27408126 0.0197269171 -0.283230364</_>
    <_>
      0.641960323 0.439957649 0.313345999 0.60075134 0.431537032
      0.579062581 0.302989632 0.589259744 0.378882796 0.573076427
      0.501427293 0.404606044 0.459296376 0.568631828 0.510589421
      0.558441281 0.697644055 0.343575835 0.66172123 0.510435581
      0.41012159 0.366968632 0.481087953 0.592164993 0.487245083
      0.651115477 0.354882419 0.498791099 0.374760658 0.536363184
      0.588688731 0.45792383 0.23957862 0.519894838 0.543673873
      0.540429473 0.623578191 0.392894626 0.568021595 0.619250774
      0.32214123 0.531965196</_>
    <_>
      0.0570890494 0.113556564 0.0954001769 0.0651391223 -0.0315269232
      0.0758969188 -0.0772825181 -0.0236818604 -0.0485363565
      0.00818741415 0.231465861 -0.186726525 0.0686260164 -0.161271587
      -0.0471931882 0.108895063 0.00642800191 -0.107774481 -0.0715303719
      0.067959778 -0.0730366632 0.0216458589 0.00455718394 -0.0651600361
      0.214394405 0.0633919016 -0.202514261 0.0186454318 -0.0661786497
      0.0852433369 -0.0792520717 -0.0114736445 0.0504987277 0.086575523
      -0.120029643 -0.0334501229 -0.0474945307 -0.0653329268 0.176545426
      0.040498171 -0.126088396 0.0917861983</_>
    <_>
      0. 0. -0.0723317042 -0.189436942 -0.0739383623 -0.448100746
      -0.0213880073 -0.630147755 0.0494878218 -0.759515762 0.1046886
      -0.586414695 0.207388654 -0.768410981 0.275909573 -0.868969321
      0.338936567 -0.94080925 0.160677329 -0.496425629 0.197723985
      -0.693138182 0.108149603 -0.586782634 0.0494871289 -0.462883353
      0.206260607 -0.384239346 0.234336585 -0.558159292 0.131969541
      -0.438406557 0.0709775612 -0.316795141 0.252059758 -0.246317104
      0.278065681 -0.412458837 0.196493343 -0.377095193 0.129888237
      -0.304443091</_>
    <_>
      0.619663119 0.439021707 0.486598283 0.501468837 0.42151016
      0.564828038 0.487905174 0.541953266 0.41125077 0.456254184
      0.572238147 0.462716699 0.672696412 0.460036367 0.522468448
      0.593259096 0.358163416 0.323919117 0.347434372 0.626258433
      0.444814175 0.755819917 0.443575233 0.518455148 0.654210985
      0.700609267 0.706150353 0.620836616 0.602406263 0.559252679
      0.577836096 0.444881439 0.418180108 0.499662548 0.482981533
      0.454677194 0.569638729 0.59553051 0.50884068 0.647753 0.385831088
      0.480634063</_>
    <_>
      0.526712656 0.550872505 0.341880918 0.589503825 0.451693892
      0.514679313 0.661222041 0.58968395 0.473146945 0.410880774
      0.28481847 0.428084671 0.478886962 0.401282042 0.486874312
      0.507685184 0.477514416 0.434999734 0.516865492 0.544194043
      0.390960097 0.641093254 0.490141183 0.501884937 0.570821464
      0.523321629 0.595313668 0.528712392 0.438756257 0.536150336
      0.385627389 0.510855973 0.496677011 0.479188323 0.487146258
      0.311815083 0.445127517 0.509284496 0.515985668 0.397232473
      0.626570761 0.4133825</_>
    <_>
      0. 0. -0.0428843535 -0.244236678 0.00130765222 -0.514620423
      0.0876975507 -0.674582183 0.181148052 -0.80194509 0.224942654
      -0.59192574 0.380496204 -0.731615186 0.47183305 -0.791790664
      0.559495389 -0.828833461 0.272025406 -0.454059482 0.340216696
      -0.6298033 0.204601139 -0.565986097 0.112286329 -0.470097244
      0.301990449 -0.311494231 0.354765743 -0.475542873 0.219239861
      -0.411874086 0.134992331 -0.320012629 0.326668382 -0.143357053
      0.37709561 -0.302789927 0.281498998 -0.302269995 0.201589912
      -0.255102009</_>
    <_>
      0. 0. 0.141498148 -0.0715047792 0.249468476 -0.243101761
      0.328316957 -0.385873467 0.390917271 -0.451390773 0.130701557
      -0.582168877 0.155379236 -0.756430507 0.166049123 -0.863930345
      0.172899291 -0.928872705 0.04364869 -0.60210973 0.0427585393
      -0.810530603 0.0377198495 -0.92113775 0.0343557633 -0.999409676
      -0.0274581406 -0.578813791 -0.0454895832 -0.771780193
      -0.0524204634 -0.877260804 -0.0570273399 -0.952244759 -0.101603478
      -0.519381464 -0.146957874 -0.631750166 -0.171700731 -0.7121737
      -0.186713785 -0.775961995</_>
    <_>
      0. 0. -0.0626951307 -0.200693265 -0.0474676862 -0.459534556
      0.029177757 -0.61552 0.116308466 -0.735233366 0.172345445
      -0.607510746 0.305466801 -0.762694716 0.392926663 -0.832766414
      0.475093544 -0.879935265 0.22537595 -0.475261062 0.282123268
      -0.644200206 0.157298431 -0.545899928 0.0726815015 -0.443597615
      0.259844422 -0.332809567 0.297375381 -0.471042424 0.17101264
      -0.380013436 0.0929571912 -0.297232151 0.287641823 -0.169102877
      0.324250966 -0.306301564 0.230362669 -0.274507493 0.156832784
      -0.228547171</_>
    <_>
      -0.082549721 -0.0321385823 0.0412931442 -0.0563724563 -0.082222037
      0.024368722 0.0244966578 -0.0506943166 -0.0471038297 0.0232049935
      -0.144808441 -0.140746385 -0.0718444213 -0.0213447157 0.0310907569
      0.147535622 0.0857659653 -0.0159938522 -0.00190162077 -0.100252934
      -0.00185131363 -0.0288658645 0.0322718546 -0.082723096 0.051934652
      0.153273895 -0.0108760148 0.0401711725 0.0690144002 -0.0401220471
      0.0224092491 0.00125924009 0.00976760965 -0.0773009807
      0.0024510175 0.0497998297 0.145114362 0.095927082 0.215318248
      -0.0767347589 0.0872320607 0.0183342006</_>
    <_>
      0.0577072129 -0.0203045383 0.0371145867 -0.060398519 0.00865897909
      -0.0155677237 0.11677821 0.0254420843 0.0337602645 -0.0411876962
      -0.0487606227 -0.0432558171 0.039445214 -0.0420984477 0.0289774854
      0.20754008 0.0871124715 -0.0326023549 0.12012139 -0.0408075377
      -0.20381245 -0.100808628 -0.187079191 -0.0351513475 0.00184183789
      0.167643726 0.0326927379 -0.0219100527 0.0829405561 -0.221113533
      0.0235614553 0.0770865157 -0.14785862 0.114375405 0.0338496417
      -0.0415287912 0.0632781833 0.227069288 0.0181866251 0.0248220582
      -0.045936089 -0.0849844366</_>
    <_>
      0. 0. 0.0777538717 -0.351390988 0.0691970438 -0.674943447
      -0.0865920112 -0.868945777 -0.208076328 -0.953888476 -0.0906074122
      -0.80741936 -0.177663609 -0.984091282 -0.0974848494 -0.806894541
      -0.0449000709 -0.714571595 -0.189710721 -0.694826424 -0.282862782
      -0.865775466 -0.166866079 -0.650219202 -0.120800234 -0.581112564
      -0.26911062 -0.551248729 -0.351936281 -0.689915478 -0.224022686
      -0.487206519 -0.175985172 -0.424262077 -0.34458515 -0.362874746
      -0.413910925 -0.498843968 -0.311555535 -0.38065967 -0.263697743
      -0.326544344</_>
    <_>
      -0.00376347033 0.110330187 0.0114227645 0.0150301764 -0.0363612212
      -0.00569456257 0.0307801776 -0.171016842 -0.134818539 0.0743264109
      0.0170865431 -0.0183983333 0.00184339331 0.0347581692
      -0.0539759696 -0.0778304711 0.0195845254 -0.0978372768
      0.0408252738 -0.170258358 0.102915563 0.047259748 0.025602974
      0.0982690975 0.166547447 0.10143701 -0.184087425 -0.127957702
      -0.0624818578 0.00260910508 0.0517659038 -0.0725743845
      0.0186766759 -0.0755382925 -0.0611517802 -0.140666112
      -0.0923233256 -0.135168463 -0.0975873247 0.105364181 -0.0949398875
      0.263238192</_>
    <_>
      0. 0. -0.247597173 -0.0290146377 -0.461336493 -0.223361582
      -0.532197535 -0.530176222 -0.477885246 -0.798635304 -0.354702622
      -0.774066567 -0.485949636 -0.866399467 -0.420108676 -0.572461724
      -0.350280702 -0.555850387 -0.232417509 -0.837189019 -0.367658794
      -0.921910107 -0.307129353 -0.565647304 -0.241468608 -0.603764057
      -0.108069532 -0.876143038 -0.239218533 -0.970965743 -0.203328595
      -0.614773154 -0.136404023 -0.625025034 0.0332515389 -0.883416593
      -0.0895684734 -0.926235914 -0.0844740868 -0.683432519
      -0.0346764363 -0.676301837</_></uncompressed_support_vectors>
  <decision_functions>
    <_>
      <sv_count>1</sv_count>
      <rho>-1.2787794494957607</rho>
      <alpha>
        1.</alpha>
      <index>
        0</index></_>
    <_>
      <sv_count>1</sv_count>
      <rho>-1.1929787463812296</rho>
      <alpha>
        1.</alpha>
      <index>
        1</index></_>
    <_>
      <sv_count>1</sv_count>
      <rho>-0.048702875039512566</rho>
      <alpha>
        1.</alpha>
      <index>
        2</index></_></decision_functions></opencv_ml_svm>
</opencv_storage>
