<?xml version="1.0"?>
<opencv_storage>
<opencv_ml_svm>
  <format>3</format>
  <svmType>C_SVC</svmType>
  <kernel>
    <type>LINEAR</type></kernel>
  <C>1.</C>
  <term_criteria><iterations>1000</iterations></term_criteria>
  <var_count>42</var_count>
  <class_count>3</class_count>
  <class_labels type_id="opencv-matrix">
    <rows>3</rows>
    <cols>1</cols>
    <dt>i</dt>
    <data>
      0 1 2</data></class_labels>
  <sv_total>3</sv_total>
  <support_vectors>
    <_>
      -0.105718486 -0.0977211148 -0.107968077 -0.115645215 -0.0806749165
      -0.132317916 -0.0803483874 -0.125344634 -0.094225049 -0.123273358
      -0.0787430406 -0.0970780179 -0.0785425752 -0.144223481
      -0.0905582011 -0.0834553465 -0.0824635699 -0.101435967
      -0.0943399742 -0.10244827 -0.0989440531 -0.111421034 -0.116671838
      -0.130431756 -0.0904661193 -0.105404094 -0.0958801359
      -0.0999104902 -0.106821753 -0.0920926929 -0.1259716 -0.114106081
      -0.0745138004 -0.109129146 -0.102062784 -0.111889988 -0.142336339
      -0.118064575 -0.0921251327 -0.104717068 -0.0584396757
      -0.0814682841</_>
    <_>
      0.0907045305 0.096716471 0.128641337 0.115305044 0.123918153
      0.0954913273 0.124035612 0.0955303088 0.0932635516 0.125587851
      0.0907761008 0.119629264 0.123942792 0.0740341097 0.0849307999
      0.118874088 0.0722251236 0.111055009 0.108330332 0.132617697
      0.111292005 0.0463973917 0.098959595 0.0934231207 0.113768376
      0.129126191 0.135631517 0.12606737 0.107572183 0.0697386935
      0.116042763 0.124922611 0.0513217561 0.122292824 0.163272426
      0.079128921 0.101102844 0.0912458897 0.109922379 0.126290694
      0.073300764 0.114249475</_>
    <_>
      0.0520152263 0.0430926904 0.0650506392 0.0562410839 0.0515358634
      0.0534564741 0.0438682511 0.0499534011 0.0425420105 0.0532524139
      0.0419914424 0.0509669818 0.0473753549 0.0540828258 0.0407668054
      0.039819289 0.0449880026 0.0527997799 0.0508022942 0.0506827794
      0.0554042235 0.0463156924 0.061332237 0.0513732061 0.0486285649
      0.0550820865 0.0482666306 0.0643220916 0.0455293395 0.044516854
      0.0570871942 0.0519120395 0.0421303473 0.0511225462 0.0572230853
      0.0420130007 0.0490173921 0.0568883531 0.0387591161 0.0405233875
      0.0477373302 0.0510857292</_></support_vectors>
  <uncompressed_sv_total>10</uncompressed_sv_total>
  <uncompressed_support_vectors>
    <_>
      0.0727629513 0.00519458856 0.0732640103 -0.0080716582
      0.00786351878 -0.199820071 0.0916327685 0.0346488468 0.0998010114
      -0.289625525 0.208837464 -0.0139589626 0.110818282 -0.103990592
      0.0612773895 -0.105341554 -0.0623768978 0.191403136 -0.0190682393
      0.0217432864 0.0870067701 0.0495681874 0.0150418906 0.0364960991
      0.240341559 -0.0057618795 0.0201099049 0.105065443 0.110552594
      0.11870303 0.0638730228 -0.114300489 0.163343146 -0.114634536
      0.0302635469 -0.0754275844 -0.00641383464 0.032876242 0.0321357213
      0.0421920754 0.161371127 0.0453534313</_>
    <_>
      0.568356931 0.363404423 0.621194422 0.526125073 0.4630723
      0.514338851 0.32237649 0.540865302 0.397062838 0.364732981
      0.347764075 0.611268818 0.437073648 0.653372765 0.446419865
      0.329264194 0.388347566 0.623581171 0.484410197 0.445171267
      0.516001821 0.550178289 0.611739874 0.644849896 0.464023143
      0.367395222 0.45865348 0.526028037 0.403624117 0.404284894
      0.534378767 0.495134771 0.503279686 0.424150467 0.476959914
      0.40757668 0.589019835 0.603524923 0.315381199 0.407048911
      0.350347072 0.434997618</_>
    <_>
      -0.0650642589 -0.0487125367 -0.0592393912 -0.0863990784
      0.00485216267 -0.0830950141 0.0270456821 -0.00502381101
      -0.0238948055 -0.0907563642 -0.0576771349 0.0755391195
      0.0500917174 -0.0977555215 0.00993323047 0.0751387104 -0.166940525
      0.0543360189 -0.0662623793 0.0570598654 -0.0763259158 -0.180488214
      -0.162754238 0.00480849482 0.0259722508 -0.0904316604 0.0638592467
      -0.166152 -0.00660798 -0.121101618 -0.0651836097 0.00473986706
      -0.0860413387 -0.0384555534 0.100629278 -0.0576891862 0.0835692137
      -0.112970687 0.0529804192 0.144156858 -0.247164443 -0.0796895251</_>
    <_>
      0.475393742 0.415675342 0.717094243 0.482411414 0.512320459
      0.555148542 0.504360259 0.669505119 0.437735051 0.519460738
      0.425752938 0.367997736 0.438823104 0.496296316 0.457069784
      0.43075791 0.359368265 0.491689444 0.349527955 0.576005578
      0.508243978 0.354244858 0.469079107 0.424784362 0.531917453
      0.634045064 0.312482744 0.511502624 0.483986735 0.567134023
      0.521319687 0.424803078 0.468094617 0.420397401 0.607600689
      0.502131164 0.690119088 0.493933916 0.429159313 0.348628551
      0.319686025 0.341586411</_>
    <_>
      0.0357015468 -0.0692909583 0.0899599865 0.0307299513 0.0812862143
      0.0629628822 -0.0828995034 -0.0560181029 0.0747293606 0.0610370263
      -0.00209015934 0.0117327385 0.12776649 -0.0591571406 0.0547097363
      -0.0202192646 -0.021768121 0.109877683 0.0825416371 0.0813509673
      0.130547881 0.0021003841 0.0681952983 -0.0310266763 0.0324166343
      -0.0130143054 0.00969959609 0.0595157035 -0.0818220675 0.209238723
      -0.10060174 -0.121418864 0.115811087 0.0791662708 0.0624119826
      0.0628345534 -0.00122467731 -0.0897254348 0.00758045586
      -0.0677161738 0.097511977 -0.0147057381</_>
    <_>
      0.104955271 -0.0535235219 0.131739408 0.0197599605 0.207526088
      -0.0689187795 0.173596382 0.0197910778 -0.0651417971 -0.0483885817
      -0.0320347324 0.0424165949 0.0522835478 -0.0573699996
      -0.00243545929 0.214227036 0.172754318 0.0436323658 0.00380034791
      0.0120031331 0.0613517985 -0.102279253 -0.0257376544 -0.166858405
      0.0399223119 0.064719595 -0.0483186468 0.157398671 -0.122576565
      -0.146437481 0.0224451814 0.104709834 0.168392763 -0.0458884276
      0.107868083 -0.00385084702 -0.0172627307 0.0883659944 0.0652322844
      -0.15763922 0.147654042 0.138009131</_>
    <_>
      -0.485063642 -0.463585973 -0.499282151 -0.708647788 -0.483951032
      -0.278746903 -0.536003947 -0.572807729 -0.462665141 -0.468762189
      -0.380726486 -0.625786841 -0.426861972 -0.440957785 -0.514214635
      -0.46613127 -0.397054255 -0.412768453 -0.61430192 -0.417984188
      -0.506468832 -0.492712587 -0.492680311 -0.515024304 -0.380829245
      -0.50837177 -0.611954629 -0.539353013 -0.482130527 -0.377078533
      -0.43969053 -0.585053504 -0.251480997 -0.473522455 -0.372460932
      -0.515171468 -0.446664065 -0.416053146 -0.378180534 -0.394263178
      -0.412780315 -0.531508684</_>
    <_>
      -0.424321145 -0.438753128 -0.601668298 -0.524408042 -0.503930748
      -0.513449669 -0.466614008 -0.35686332 -0.391823322 -0.63122189
      -0.437792987 -0.367106676 -0.461319149 -0.390901953 -0.298772961
      -0.397629052 -0.475069135 -0.395491153 -0.485511214 -0.497609705
      -0.535141408 -0.343658656 -0.58184284 -0.346763223 -0.450013578
      -0.639930606 -0.46323508 -0.710002661 -0.437449187 -0.411476851
      -0.559235573 -0.487645239 -0.304584265 -0.55057466 -0.605890751
      -0.351833671 -0.303741276 -0.499630421 -0.398853689 -0.365852416
      -0.574248433 -0.548530579</_>
    <_>
      0.526712656 0.550872505 0.341880918 0.589503825 0.451693892
      0.514679313 0.661222041 0.58968395 0.473146945 0.410880774
      0.28481847 0.428084671 0.478886962 0.401282042 0.486874312
      0.507685184 0.477514416 0.434999734 0.516865492 0.544194043
      0.390960097 0.641093254 0.490141183 0.501884937 0.570821464
      0.523321629 0.595313668 0.528712392 0.438756257 0.536150336
      0.385627389 0.510855973 0.496677011 0.479188323 0.487146258
      0.311815083 0.445127517 0.509284496 0.515985668 0.397232473
      0.626570761 0.4133825</_>
    <_>
      0.594955385 0.351510197 0.244607881 0.593432009 0.363312125
      0.477523446 0.382988691 0.319801956 0.55414629 0.575915515
      0.442348957 0.240895778 0.445375562 0.539180398 0.352108836
      0.518335998 0.498469025 0.557929158 0.511958063 0.402693093
      0.619657159 0.484147042 0.497269541 0.406673193 0.455671787
      0.411519736 0.482705384 0.671170831 0.362809896 0.338643849
      0.647117019 0.479067624 0.433092713 0.603990495 0.439438432
      0.682600975 0.567792594 0.45120886 0.715730846 0.439428508
      0.574209511 0.52992928</_></uncompressed_support_vectors>
  <decision_functions>
    <_>
      <sv_count>1</sv_count>
      <rho>-1.0847667077018444</rho>
      <alpha>
        1.</alpha>
      <index>
        0</index></_>
    <_>
      <sv_count>1</sv_count>
      <rho>-1.1113333156692315</rho>
      <alpha>
        1.</alpha>
      <index>
        1</index></_>
    <_>
      <sv_count>1</sv_count>
      <rho>0.0089863804059177928</rho>
      <alpha>
        1.</alpha>
      <index>
        2</index></_></decision_functions></opencv_ml_svm>
</opencv_storage>
